Language model created by QuickLM on Thu Mar 14 21:33:33 EDT 2019
Copyright (c) 1996-2010 Carnegie Mellon University and Alexander I. Rudnicky

The model is in standard ARPA format, designed by Doug Paul while he was at MITRE.

The code that was used to produce this language model is available in Open Source.
Please visit http://www.speech.cs.cmu.edu/tools/ for more information

The (fixed) discount mass is 0.5. The backoffs are computed using the ratio method.
This model based on a corpus of 5 sentences and 7 words

\data\
ngram 1=7
ngram 2=10
ngram 3=5

\1-grams:
-0.7782 </s> -0.3010
-0.7782 <s> -0.2218
-1.4771 NEXT -0.2218
-1.4771 PAUSE -0.2218
-1.4771 PEPPER -0.2218
-1.4771 PLAY -0.2218
-1.4771 PREVIOUS -0.2218

\2-grams:
-1.0000 <s> NEXT 0.0000
-1.0000 <s> PAUSE 0.0000
-1.0000 <s> PEPPER 0.0000
-1.0000 <s> PLAY 0.0000
-1.0000 <s> PREVIOUS 0.0000
-0.3010 NEXT </s> -0.3010
-0.3010 PAUSE </s> -0.3010
-0.3010 PEPPER </s> -0.3010
-0.3010 PLAY </s> -0.3010
-0.3010 PREVIOUS </s> -0.3010

\3-grams:
-0.3010 <s> NEXT </s>
-0.3010 <s> PAUSE </s>
-0.3010 <s> PEPPER </s>
-0.3010 <s> PLAY </s>
-0.3010 <s> PREVIOUS </s>

\end\
